#include "direct_model.h"
#include <stdint.h>


static const float w1[16] = {
     0.49424079f,  0.11827985f,  0.07181276f, -0.13095269f,
     0.05069137f, -0.53648359f, -0.38440952f,  0.27880251f,
    -0.00844856f, -0.18164405f, -0.18586834f, -0.32949388f,
     0.40975520f,  0.50691366f,  0.10560701f, -0.13940126f
};

static const float b1[16] = {
     0.00041523f,  0.30467463f, -0.25713086f,  0.00000000f,
     0.33124930f,  0.00000000f,  0.00000000f,  0.18135147f,
     0.00000000f,  0.00000000f,  0.88879865f,  0.00000000f,
     0.19090176f, -0.28162938f, -0.41979700f,  0.00000000f
};

static const float w2[16][16] = {
    {-0.22742289f, -0.05053842f,  0.00000000f, -0.25269210f,  0.06317303f,  0.29059592f, -0.21478829f, -0.25269210f, -0.32849973f, -0.10107684f,  0.03790382f,  0.01263461f,  0.00000000f, -0.07580763f, -0.10107684f, -0.13898066f},
    {-0.45484579f, -0.26532671f,  0.49274960f,  0.25269210f, -0.18951908f, -0.42957658f, -0.37903816f, -0.46748039f, -0.20215368f, -0.42957658f,  0.61909568f,  0.07580763f,  0.02526921f, -0.32849973f, -0.22742289f, -0.08844224f},
    { 0.00000000f,  0.27796131f,  0.08844224f, -0.40430737f, -0.02526921f, -0.01263461f, -0.29059592f,  0.07580763f, -0.31586513f, -0.21478829f, -1.60459483f,  0.34113434f,  0.30323052f, -0.27796131f, -0.69490325f,  0.01263461f},
    { 0.18951908f,  0.00000000f, -0.48011500f, -0.11371145f,  0.17688447f, -0.25269210f,  0.24005750f,  0.39167276f,  0.05053842f,  0.24005750f, -0.96022999f, -0.32849973f, -0.03790382f,  0.07580763f, -0.89705694f, -0.40430737f},
    { 0.16424987f, -0.25269210f, -0.20215368f, -0.42957658f, -0.26532671f, -0.11371145f,  0.06317303f,  0.48011500f,  0.32849973f, -0.35376894f,  1.40244114f,  0.32849973f, -0.27796131f,  0.37903816f,  0.66963410f, -0.41694197f},
    { 0.32849973f, -0.16424987f, -0.18951908f,  0.31586513f,  0.18951908f,  0.03790382f,  0.34113434f, -0.39167276f, -0.42957658f,  0.24005750f, -0.12634605f,  0.31586513f, -0.01263461f, -0.12634605f,  0.34113434f,  0.30323052f},
    {-0.20215368f,  0.35376894f, -0.48011500f,  0.34113434f,  0.34113434f,  0.40430737f, -0.34113434f,  0.32849973f, -0.13898066f, -0.01263461f, -1.33926821f,  0.13898066f,  0.00000000f,  0.01263461f, -0.64436483f, -0.42957658f},
    { 0.16424987f, -0.12634605f,  0.27796131f, -0.36640355f, -0.24005750f, -0.05053842f,  0.17688447f, -0.29059592f, -0.07580763f, -0.26532671f,  1.16238368f, -0.05053842f,  0.36640355f,  0.02526921f,  1.14974904f, -0.37903816f},
    {-0.39167276f, -0.13898066f,  0.26532671f, -0.25269210f, -0.15161526f,  0.00000000f,  0.24005750f,  0.06317303f, -0.25269210f,  0.15161526f,  0.36640355f,  0.25269210f,  0.17688447f, -0.31586513f,  0.13898066f, -0.15161526f},
    { 0.31586513f,  0.00000000f, -0.51801884f,  0.06317303f,  0.49274960f,  0.02526921f,  0.26532671f, -0.27796131f, -0.27796131f,  0.02526921f, -1.27609515f,  0.00000000f,  0.15161526f, -0.07580763f, -0.30323052f, -0.27796131f},
    {-0.03790382f,  0.00000000f,  0.25269210f, -0.03790382f,  0.13898066f,  0.02526921f, -0.21478829f, -0.22742289f,  0.07580763f, -0.22742289f,  0.01263461f,  0.16424987f,  0.07580763f, -0.32849973f, -0.11371145f,  0.21478829f},
    {-0.11371145f,  0.11371145f, -0.10107684f, -0.18951908f,  0.41694197f, -0.01263461f,  0.17688447f, -0.16424987f, -0.25269210f,  0.22742289f,  0.48011500f,  0.36640355f, -0.17688447f, -0.29059592f,  0.50538421f,  0.30323052f},
    {-0.40430737f, -0.06317303f, -0.16424987f, -0.15161526f,  0.06317303f,  0.36640355f,  0.36640355f, -0.06317303f, -0.03790382f,  0.37903816f, -0.05053842f,  0.21478829f, -0.30323052f,  0.08844224f,  0.11371145f,  0.03790382f},
    { 0.22742289f, -0.17688447f,  0.68226868f, -0.06317303f, -0.45484579f,  0.35376894f, -0.08844224f, -0.21478829f, -0.16424987f, -0.31586513f,  1.40244114f,  0.15161526f,  0.36640355f,  0.00000000f,  0.87178779f, -0.03790382f},
    { 0.17688447f, -0.20215368f,  0.13898066f,  0.31586513f,  0.32849973f, -0.07580763f, -0.40430737f,  0.31586513f,  0.39167276f,  0.24005750f,  0.68226868f,  0.35376894f,  0.22742289f, -0.26532671f,  0.74544168f,  0.15161526f},
    {-0.96022999f, -0.66963410f, -0.32849973f,  0.24005750f, -0.07580763f, -0.26532671f, -0.18951908f,  0.07580763f,  0.35376894f, -0.07580763f,  0.30323052f, -0.34113434f, -0.26532671f, -0.66963410f,  0.15161526f, -0.15161526f}
};

static const float b2[16] = {
     0.00000000f,  0.18571725f,  0.41304749f,  0.24366720f,
    -0.29822645f,  0.00000000f,  0.41828766f, -0.31595051f,
     0.19943413f,  0.38777146f, -0.06796789f,  0.18587138f,
     0.00000000f, -0.32858855f, -0.26462781f,  0.20868146f
};

static const float w3[16] = {
     0.28056607f, -0.77368218f, -0.99473423f, -0.45910811f,
     0.79918820f,  0.24655806f, -0.42510009f,  0.56113213f,
    -0.84169817f, -0.42510009f,  0.26356205f, -0.68016016f,
    -0.28056607f,  0.71416813f,  0.39959410f, -1.07975423f
};

static const float b3 = -0.21071714f;


static inline float relu_f(float x) {
    return x > 0.0f ? x : 0.0f;
}

float DirectInfer(float x) {
    float a1[16], a2[16];

    for (int i = 0; i < 16; i++) {
        a1[i] = relu_f(w1[i] * x + b1[i]);
    }

    for (int i = 0; i < 16; i++) {
        float acc = b2[i];
        for (int j = 0; j < 16; j++) {
            acc += w2[i][j] * a1[j];
        }
        a2[i] = relu_f(acc);
    }

    float y = b3;
    for (int j = 0; j < 16; j++) {
        y += w3[j] * a2[j];
    }

    return y;
}